<?xml version="1.0"?>
<opencv_storage>
<cascade>
  <stageType>BOOST</stageType>
  <featureType>HAAR</featureType>
  <height>24</height>
  <width>24</width>
  <stageParams>
    <boostType>GAB</boostType>
    <minHitRate>9.9500000476837158e-01</minHitRate>
    <maxFalseAlarm>5.0000000000000000e-01</maxFalseAlarm>
    <weightTrimRate>9.4999999999999996e-01</weightTrimRate>
    <maxDepth>1</maxDepth>
    <maxWeakCount>100</maxWeakCount></stageParams>
  <featureParams>
    <maxCatCount>0</maxCatCount>
    <featSize>1</featSize>
    <mode>BASIC</mode></featureParams>
  <stageNum>16</stageNum>
  <stages>
    <!-- stage 0 -->
    <_>
      <maxWeakCount>2</maxWeakCount>
      <stageThreshold>-4.4711303710937500e-01</stageThreshold>
      <weakClassifiers>
        <_>
          <internalNodes>
            0 -1 28 1.2596496380865574e-02</internalNodes>
          <leafValues>
            -8.1132078170776367e-01 6.6666668653488159e-01</leafValues></_>
        <_>
          <internalNodes>
            0 -1 3 1.8428945913910866e-02</internalNodes>
          <leafValues>
            3.6420771479606628e-01 -1.</leafValues></_></weakClassifiers></_>
    <!-- stage 1 -->
    <_>
      <maxWeakCount>3</maxWeakCount>
      <stageThreshold>-7.8788250684738159e-01</stageThreshold>
      <weakClassifiers>
        <_>
          <internalNodes>
            0 -1 12 3.5454453900456429e-03</internalNodes>
          <leafValues>
            -7.3913043737411499e-01 1.</leafValues></_>
        <_>
          <internalNodes>
            0 -1 7 7.1432795375585556e-03</internalNodes>
          <leafValues>
            -5.6452220678329468e-01 9.6061378717422485e-01</leafValues></_>
        <_>
          <internalNodes>
            0 -1 21 -1.6088920529000461e-04</internalNodes>
          <leafValues>
            -1. 5.1577013731002808e-01</leafValues></_></weakClassifiers></_>
    <!-- stage 2 -->
    <_>
      <maxWeakCount>2</maxWeakCount>
      <stageThreshold>-5.0848537683486938e-01</stageThreshold>
      <weakClassifiers>
        <_>
          <internalNodes>
            0 -1 23 -3.9646122604608536e-03</internalNodes>
          <leafValues>
            5.3333336114883423e-01 -8.6000001430511475e-01</leafValues></_>
        <_>
          <internalNodes>
            0 -1 20 5.5291140597546473e-05</internalNodes>
          <leafValues>
            3.5151463747024536e-01 -1.</leafValues></_></weakClassifiers></_>
    <!-- stage 3 -->
    <_>
      <maxWeakCount>2</maxWeakCount>
      <stageThreshold>-1.8734185397624969e-01</stageThreshold>
      <weakClassifiers>
        <_>
          <internalNodes>
            0 -1 29 3.3455288503319025e-03</internalNodes>
          <leafValues>
            -7.6146787405014038e-01 6.1904764175415039e-01</leafValues></_>
        <_>
          <internalNodes>
            0 -1 32 3.0011655762791634e-03</internalNodes>
          <leafValues>
            -7.6201337575912476e-01 5.7412600517272949e-01</leafValues></_></weakClassifiers></_>
    <!-- stage 4 -->
    <_>
      <maxWeakCount>3</maxWeakCount>
      <stageThreshold>-6.2636482715606689e-01</stageThreshold>
      <weakClassifiers>
        <_>
          <internalNodes>
            0 -1 24 2.8190582990646362e-02</internalNodes>
          <leafValues>
            -7.2413790225982666e-01 1.</leafValues></_>
        <_>
          <internalNodes>
            0 -1 30 -1.8140561878681183e-02</internalNodes>
          <leafValues>
            6.0180360078811646e-01 -6.4445888996124268e-01</leafValues></_>
        <_>
          <internalNodes>
            0 -1 18 -6.4762741327285767e-02</internalNodes>
          <leafValues>
            8.0304640531539917e-01 -5.0403052568435669e-01</leafValues></_></weakClassifiers></_>
    <!-- stage 5 -->
    <_>
      <maxWeakCount>3</maxWeakCount>
      <stageThreshold>-3.7639513611793518e-01</stageThreshold>
      <weakClassifiers>
        <_>
          <internalNodes>
            0 -1 6 1.8168486654758453e-02</internalNodes>
          <leafValues>
            -7.0940172672271729e-01 1.</leafValues></_>
        <_>
          <internalNodes>
            0 -1 17 -3.6238811910152435e-02</internalNodes>
          <leafValues>
            9.5274293422698975e-01 -5.4777932167053223e-01</leafValues></_>
        <_>
          <internalNodes>
            0 -1 2 -6.7718744277954102e-02</internalNodes>
          <leafValues>
            8.8078594207763672e-01 -4.9359753727912903e-01</leafValues></_></weakClassifiers></_>
    <!-- stage 6 -->
    <_>
      <maxWeakCount>3</maxWeakCount>
      <stageThreshold>-2.4039563536643982e-01</stageThreshold>
      <weakClassifiers>
        <_>
          <internalNodes>
            0 -1 33 -5.2849635481834412e-02</internalNodes>
          <leafValues>
            1. -7.2413790225982666e-01</leafValues></_>
        <_>
          <internalNodes>
            0 -1 11 2.7732741832733154e-01</internalNodes>
          <leafValues>
            -5.1625770330429077e-01 1.</leafValues></_>
        <_>
          <internalNodes>
            0 -1 37 2.2053467109799385e-02</internalNodes>
          <leafValues>
            -3.9104187488555908e-01 1.</leafValues></_></weakClassifiers></_>
    <!-- stage 7 -->
    <_>
      <maxWeakCount>2</maxWeakCount>
      <stageThreshold>-3.7828373908996582e-01</stageThreshold>
      <weakClassifiers>
        <_>
          <internalNodes>
            0 -1 14 7.8682396560907364e-03</internalNodes>
          <leafValues>
            -6.9230771064758301e-01 8.4615385532379150e-01</leafValues></_>
        <_>
          <internalNodes>
            0 -1 1 7.1280379779636860e-04</internalNodes>
          <leafValues>
            3.1402394175529480e-01 -9.4588142633438110e-01</leafValues></_></weakClassifiers></_>
    <!-- stage 8 -->
    <_>
      <maxWeakCount>1</maxWeakCount>
      <stageThreshold>-1.1764705926179886e-01</stageThreshold>
      <weakClassifiers>
        <_>
          <internalNodes>
            0 -1 19 -3.2471149461343884e-04</internalNodes>
          <leafValues>
            -1. -1.1764705926179886e-01</leafValues></_></weakClassifiers></_>
    <!-- stage 9 -->
    <_>
      <maxWeakCount>2</maxWeakCount>
      <stageThreshold>-3.3020773530006409e-01</stageThreshold>
      <weakClassifiers>
        <_>
          <internalNodes>
            0 -1 22 -2.4646718055009842e-02</internalNodes>
          <leafValues>
            7.7777779102325439e-01 -7.5000000000000000e-01</leafValues></_>
        <_>
          <internalNodes>
            0 -1 19 7.2625727625563741e-05</internalNodes>
          <leafValues>
            4.1979226469993591e-01 -1.</leafValues></_></weakClassifiers></_>
    <!-- stage 10 -->
    <_>
      <maxWeakCount>3</maxWeakCount>
      <stageThreshold>-9.0602809190750122e-01</stageThreshold>
      <weakClassifiers>
        <_>
          <internalNodes>
            0 -1 8 2.5285087525844574e-02</internalNodes>
          <leafValues>
            -6.8067228794097900e-01 1.</leafValues></_>
        <_>
          <internalNodes>
            0 -1 5 8.3576720207929611e-03</internalNodes>
          <leafValues>
            -7.5540691614151001e-01 5.9195625782012939e-01</leafValues></_>
        <_>
          <internalNodes>
            0 -1 38 3.2367208041250706e-04</internalNodes>
          <leafValues>
            5.3005111217498779e-01 -7.4721294641494751e-01</leafValues></_></weakClassifiers></_>
    <!-- stage 11 -->
    <_>
      <maxWeakCount>2</maxWeakCount>
      <stageThreshold>-3.1717580556869507e-01</stageThreshold>
      <weakClassifiers>
        <_>
          <internalNodes>
            0 -1 13 2.3674571420997381e-03</internalNodes>
          <leafValues>
            -6.9230771064758301e-01 8.4615385532379150e-01</leafValues></_>
        <_>
          <internalNodes>
            0 -1 35 -1.4166091568768024e-03</internalNodes>
          <leafValues>
            -8.6058819293975830e-01 3.7513187527656555e-01</leafValues></_></weakClassifiers></_>
    <!-- stage 12 -->
    <_>
      <maxWeakCount>3</maxWeakCount>
      <stageThreshold>-7.9223507642745972e-01</stageThreshold>
      <weakClassifiers>
        <_>
          <internalNodes>
            0 -1 0 1.9775507971644402e-02</internalNodes>
          <leafValues>
            -7.2972971200942993e-01 5.7894736528396606e-01</leafValues></_>
        <_>
          <internalNodes>
            0 -1 34 3.1693272292613983e-02</internalNodes>
          <leafValues>
            -5.5771899223327637e-01 7.3686951398849487e-01</leafValues></_>
        <_>
          <internalNodes>
            0 -1 36 7.9016666859388351e-04</internalNodes>
          <leafValues>
            5.4625177383422852e-01 -7.9937487840652466e-01</leafValues></_></weakClassifiers></_>
    <!-- stage 13 -->
    <_>
      <maxWeakCount>4</maxWeakCount>
      <stageThreshold>-6.7825716733932495e-01</stageThreshold>
      <weakClassifiers>
        <_>
          <internalNodes>
            0 -1 27 7.2930887341499329e-02</internalNodes>
          <leafValues>
            -6.6666668653488159e-01 1.</leafValues></_>
        <_>
          <internalNodes>
            0 -1 9 -8.9453384280204773e-03</internalNodes>
          <leafValues>
            5.2320420742034912e-01 -6.8443518877029419e-01</leafValues></_>
        <_>
          <internalNodes>
            0 -1 16 3.9668963290750980e-04</internalNodes>
          <leafValues>
            3.9253643155097961e-01 -1.</leafValues></_>
        <_>
          <internalNodes>
            0 -1 25 -2.5070633273571730e-04</internalNodes>
          <leafValues>
            -1. 2.8030824661254883e-01</leafValues></_></weakClassifiers></_>
    <!-- stage 14 -->
    <_>
      <maxWeakCount>3</maxWeakCount>
      <stageThreshold>-5.2047836780548096e-01</stageThreshold>
      <weakClassifiers>
        <_>
          <internalNodes>
            0 -1 31 -7.9027563333511353e-02</internalNodes>
          <leafValues>
            8.4615385532379150e-01 -6.9230771064758301e-01</leafValues></_>
        <_>
          <internalNodes>
            0 -1 4 -8.0791106447577477e-03</internalNodes>
          <leafValues>
            7.4740451574325562e-01 -5.6196928024291992e-01</leafValues></_>
        <_>
          <internalNodes>
            0 -1 10 -4.7783348709344864e-03</internalNodes>
          <leafValues>
            7.3379862308502197e-01 -5.0792670249938965e-01</leafValues></_></weakClassifiers></_>
    <!-- stage 15 -->
    <_>
      <maxWeakCount>2</maxWeakCount>
      <stageThreshold>-3.6881014704704285e-01</stageThreshold>
      <weakClassifiers>
        <_>
          <internalNodes>
            0 -1 15 -3.4220226109027863e-02</internalNodes>
          <leafValues>
            8.4615385532379150e-01 -6.9230771064758301e-01</leafValues></_>
        <_>
          <internalNodes>
            0 -1 26 1.5042492304928601e-04</internalNodes>
          <leafValues>
            3.2349753379821777e-01 -1.</leafValues></_></weakClassifiers></_></stages>
  <features>
    <_>
      <rects>
        <_>
          1 4 1 18 -1.</_>
        <_>
          1 13 1 9 2.</_></rects>
      <tilted>0</tilted></_>
    <_>
      <rects>
        <_>
          1 8 2 4 -1.</_>
        <_>
          1 10 2 2 2.</_></rects>
      <tilted>0</tilted></_>
    <_>
      <rects>
        <_>
          2 3 12 14 -1.</_>
        <_>
          2 3 6 7 2.</_>
        <_>
          8 10 6 7 2.</_></rects>
      <tilted>0</tilted></_>
    <_>
      <rects>
        <_>
          2 6 18 11 -1.</_>
        <_>
          11 6 9 11 2.</_></rects>
      <tilted>0</tilted></_>
    <_>
      <rects>
        <_>
          2 12 15 4 -1.</_>
        <_>
          2 14 15 2 2.</_></rects>
      <tilted>0</tilted></_>
    <_>
      <rects>
        <_>
          3 10 14 4 -1.</_>
        <_>
          3 10 7 2 2.</_>
        <_>
          10 12 7 2 2.</_></rects>
      <tilted>0</tilted></_>
    <_>
      <rects>
        <_>
          4 6 6 3 -1.</_>
        <_>
          6 6 2 3 3.</_></rects>
      <tilted>0</tilted></_>
    <_>
      <rects>
        <_>
          4 12 6 4 -1.</_>
        <_>
          4 12 3 2 2.</_>
        <_>
          7 14 3 2 2.</_></rects>
      <tilted>0</tilted></_>
    <_>
      <rects>
        <_>
          5 10 4 6 -1.</_>
        <_>
          5 12 4 2 3.</_></rects>
      <tilted>0</tilted></_>
    <_>
      <rects>
        <_>
          5 13 10 8 -1.</_>
        <_>
          5 13 5 4 2.</_>
        <_>
          10 17 5 4 2.</_></rects>
      <tilted>0</tilted></_>
    <_>
      <rects>
        <_>
          6 12 4 6 -1.</_>
        <_>
          6 12 2 3 2.</_>
        <_>
          8 15 2 3 2.</_></rects>
      <tilted>0</tilted></_>
    <_>
      <rects>
        <_>
          7 0 16 24 -1.</_>
        <_>
          7 8 16 8 3.</_></rects>
      <tilted>0</tilted></_>
    <_>
      <rects>
        <_>
          7 8 2 4 -1.</_>
        <_>
          7 8 1 2 2.</_>
        <_>
          8 10 1 2 2.</_></rects>
      <tilted>0</tilted></_>
    <_>
      <rects>
        <_>
          7 11 1 2 -1.</_>
        <_>
          7 12 1 1 2.</_></rects>
      <tilted>0</tilted></_>
    <_>
      <rects>
        <_>
          8 7 3 4 -1.</_>
        <_>
          9 7 1 4 3.</_></rects>
      <tilted>0</tilted></_>
    <_>
      <rects>
        <_>
          9 7 6 9 -1.</_>
        <_>
          11 7 2 9 3.</_></rects>
      <tilted>0</tilted></_>
    <_>
      <rects>
        <_>
          9 12 2 3 -1.</_>
        <_>
          9 13 2 1 3.</_></rects>
      <tilted>0</tilted></_>
    <_>
      <rects>
        <_>
          10 0 6 12 -1.</_>
        <_>
          10 0 3 6 2.</_>
        <_>
          13 6 3 6 2.</_></rects>
      <tilted>0</tilted></_>
    <_>
      <rects>
        <_>
          10 2 4 21 -1.</_>
        <_>
          10 9 4 7 3.</_></rects>
      <tilted>0</tilted></_>
    <_>
      <rects>
        <_>
          10 11 2 3 -1.</_>
        <_>
          11 11 1 3 2.</_></rects>
      <tilted>0</tilted></_>
    <_>
      <rects>
        <_>
          10 11 4 2 -1.</_>
        <_>
          12 11 2 2 2.</_></rects>
      <tilted>0</tilted></_>
    <_>
      <rects>
        <_>
          10 11 4 3 -1.</_>
        <_>
          12 11 2 3 2.</_></rects>
      <tilted>0</tilted></_>
    <_>
      <rects>
        <_>
          10 11 6 9 -1.</_>
        <_>
          12 11 2 9 3.</_></rects>
      <tilted>0</tilted></_>
    <_>
      <rects>
        <_>
          10 17 4 3 -1.</_>
        <_>
          12 17 2 3 2.</_></rects>
      <tilted>0</tilted></_>
    <_>
      <rects>
        <_>
          11 3 6 8 -1.</_>
        <_>
          13 3 2 8 3.</_></rects>
      <tilted>0</tilted></_>
    <_>
      <rects>
        <_>
          11 10 1 4 -1.</_>
        <_>
          11 12 1 2 2.</_></rects>
      <tilted>0</tilted></_>
    <_>
      <rects>
        <_>
          11 10 2 4 -1.</_>
        <_>
          11 12 2 2 2.</_></rects>
      <tilted>0</tilted></_>
    <_>
      <rects>
        <_>
          12 1 6 20 -1.</_>
        <_>
          12 1 3 10 2.</_>
        <_>
          15 11 3 10 2.</_></rects>
      <tilted>0</tilted></_>
    <_>
      <rects>
        <_>
          12 4 4 12 -1.</_>
        <_>
          12 4 2 6 2.</_>
        <_>
          14 10 2 6 2.</_></rects>
      <tilted>0</tilted></_>
    <_>
      <rects>
        <_>
          12 9 3 1 -1.</_>
        <_>
          13 9 1 1 3.</_></rects>
      <tilted>0</tilted></_>
    <_>
      <rects>
        <_>
          13 13 6 11 -1.</_>
        <_>
          15 13 2 11 3.</_></rects>
      <tilted>0</tilted></_>
    <_>
      <rects>
        <_>
          14 2 9 20 -1.</_>
        <_>
          17 2 3 20 3.</_></rects>
      <tilted>0</tilted></_>
    <_>
      <rects>
        <_>
          14 3 9 2 -1.</_>
        <_>
          17 3 3 2 3.</_></rects>
      <tilted>0</tilted></_>
    <_>
      <rects>
        <_>
          14 6 9 11 -1.</_>
        <_>
          17 6 3 11 3.</_></rects>
      <tilted>0</tilted></_>
    <_>
      <rects>
        <_>
          15 7 6 9 -1.</_>
        <_>
          18 7 3 9 2.</_></rects>
      <tilted>0</tilted></_>
    <_>
      <rects>
        <_>
          17 4 2 6 -1.</_>
        <_>
          17 7 2 3 2.</_></rects>
      <tilted>0</tilted></_>
    <_>
      <rects>
        <_>
          17 5 4 4 -1.</_>
        <_>
          17 7 4 2 2.</_></rects>
      <tilted>0</tilted></_>
    <_>
      <rects>
        <_>
          17 12 2 10 -1.</_>
        <_>
          17 17 2 5 2.</_></rects>
      <tilted>0</tilted></_>
    <_>
      <rects>
        <_>
          18 2 2 8 -1.</_>
        <_>
          18 2 1 4 2.</_>
        <_>
          19 6 1 4 2.</_></rects>
      <tilted>0</tilted></_></features></cascade>
</opencv_storage>
